<?xml version="1.0"?>
<opencv_storage>
<cascade>
  <stageType>BOOST</stageType>
  <featureType>HAAR</featureType>
  <height>30</height>
  <width>30</width>
  <stageParams>
    <boostType>GAB</boostType>
    <minHitRate>9.9500000476837158e-01</minHitRate>
    <maxFalseAlarm>5.0000000000000000e-01</maxFalseAlarm>
    <weightTrimRate>9.4999998807907104e-01</weightTrimRate>
    <maxDepth>1</maxDepth>
    <maxWeakCount>100</maxWeakCount></stageParams>
  <featureParams>
    <maxCatCount>0</maxCatCount>
    <featSize>1</featSize>
    <mode>BASIC</mode></featureParams>
  <stageNum>10</stageNum>
  <stages>
    <!-- stage 0 -->
    <_>
      <maxWeakCount>5</maxWeakCount>
      <stageThreshold>-1.1812132596969604e+00</stageThreshold>
      <weakClassifiers>
        <_>
          <internalNodes>
            0 -1 56 2.9996816068887711e-02</internalNodes>
          <leafValues>
            -6.4999997615814209e-01 7.6406925916671753e-01</leafValues></_>
        <_>
          <internalNodes>
            0 -1 33 -3.9665075019001961e-03</internalNodes>
          <leafValues>
            6.4791649580001831e-01 -5.1696103811264038e-01</leafValues></_>
        <_>
          <internalNodes>
            0 -1 36 -7.7839381992816925e-02</internalNodes>
          <leafValues>
            8.3555465936660767e-01 -3.0451688170433044e-01</leafValues></_>
        <_>
          <internalNodes>
            0 -1 46 2.3347692564129829e-02</internalNodes>
          <leafValues>
            -3.4870576858520508e-01 7.4854654073715210e-01</leafValues></_>
        <_>
          <internalNodes>
            0 -1 31 -9.9153816699981689e-03</internalNodes>
          <leafValues>
            6.3897031545639038e-01 -3.5355347394943237e-01</leafValues></_></weakClassifiers></_>
    <!-- stage 1 -->
    <_>
      <maxWeakCount>5</maxWeakCount>
      <stageThreshold>-1.3539363145828247e+00</stageThreshold>
      <weakClassifiers>
        <_>
          <internalNodes>
            0 -1 55 5.4028118029236794e-03</internalNodes>
          <leafValues>
            -8.2816898822784424e-01 4.5749613642692566e-01</leafValues></_>
        <_>
          <internalNodes>
            0 -1 17 -4.7314032912254333e-02</internalNodes>
          <leafValues>
            5.9336459636688232e-01 -6.7579233646392822e-01</leafValues></_>
        <_>
          <internalNodes>
            0 -1 11 2.1861636923858896e-05</internalNodes>
          <leafValues>
            -5.1027542352676392e-01 5.0579535961151123e-01</leafValues></_>
        <_>
          <internalNodes>
            0 -1 28 8.0408360809087753e-03</internalNodes>
          <leafValues>
            -2.9432123899459839e-01 7.7456974983215332e-01</leafValues></_>
        <_>
          <internalNodes>
            0 -1 22 -1.8842282891273499e-01</internalNodes>
          <leafValues>
            8.2302331924438477e-01 -3.3104345202445984e-01</leafValues></_></weakClassifiers></_>
    <!-- stage 2 -->
    <_>
      <maxWeakCount>5</maxWeakCount>
      <stageThreshold>-5.6199336051940918e-01</stageThreshold>
      <weakClassifiers>
        <_>
          <internalNodes>
            0 -1 24 -1.3526958227157593e-01</internalNodes>
          <leafValues>
            9.8854959011077881e-01 -3.4729731082916260e-01</leafValues></_>
        <_>
          <internalNodes>
            0 -1 65 -5.6015192531049252e-03</internalNodes>
          <leafValues>
            6.5201723575592041e-01 -3.7259620428085327e-01</leafValues></_>
        <_>
          <internalNodes>
            0 -1 1 -3.2818503677845001e-02</internalNodes>
          <leafValues>
            4.1943052411079407e-01 -5.1308602094650269e-01</leafValues></_>
        <_>
          <internalNodes>
            0 -1 26 2.2438146173954010e-02</internalNodes>
          <leafValues>
            -3.7475076317787170e-01 7.6197111606597900e-01</leafValues></_>
        <_>
          <internalNodes>
            0 -1 63 -2.8972630389034748e-04</internalNodes>
          <leafValues>
            -9.1139304637908936e-01 3.2081872224807739e-01</leafValues></_></weakClassifiers></_>
    <!-- stage 3 -->
    <_>
      <maxWeakCount>6</maxWeakCount>
      <stageThreshold>-7.6946127414703369e-01</stageThreshold>
      <weakClassifiers>
        <_>
          <internalNodes>
            0 -1 53 -5.5633792653679848e-03</internalNodes>
          <leafValues>
            8.8481676578521729e-01 -3.5150244832038879e-01</leafValues></_>
        <_>
          <internalNodes>
            0 -1 40 3.1915560364723206e-02</internalNodes>
          <leafValues>
            -2.6366207003593445e-01 6.5525639057159424e-01</leafValues></_>
        <_>
          <internalNodes>
            0 -1 8 2.1349036614992656e-05</internalNodes>
          <leafValues>
            -4.3332141637802124e-01 4.6347981691360474e-01</leafValues></_>
        <_>
          <internalNodes>
            0 -1 2 2.5041699409484863e-03</internalNodes>
          <leafValues>
            1.7186298966407776e-01 -8.8867563009262085e-01</leafValues></_>
        <_>
          <internalNodes>
            0 -1 4 -4.9138913163915277e-04</internalNodes>
          <leafValues>
            -9.1425311565399170e-01 1.4444540441036224e-01</leafValues></_>
        <_>
          <internalNodes>
            0 -1 14 2.1551880054175854e-03</internalNodes>
          <leafValues>
            1.2461355328559875e-01 -9.8322719335556030e-01</leafValues></_></weakClassifiers></_>
    <!-- stage 4 -->
    <_>
      <maxWeakCount>9</maxWeakCount>
      <stageThreshold>-1.2741279602050781e+00</stageThreshold>
      <weakClassifiers>
        <_>
          <internalNodes>
            0 -1 37 -3.4260880202054977e-03</internalNodes>
          <leafValues>
            8.6417657136917114e-01 -3.5689046978950500e-01</leafValues></_>
        <_>
          <internalNodes>
            0 -1 7 1.7816506442613900e-04</internalNodes>
          <leafValues>
            -3.6324685811996460e-01 5.7546460628509521e-01</leafValues></_>
        <_>
          <internalNodes>
            0 -1 70 -1.6047319513745606e-04</internalNodes>
          <leafValues>
            -8.7301647663116455e-01 2.4566943943500519e-01</leafValues></_>
        <_>
          <internalNodes>
            0 -1 12 -1.1128832557005808e-04</internalNodes>
          <leafValues>
            -4.9311831593513489e-01 3.9262127876281738e-01</leafValues></_>
        <_>
          <internalNodes>
            0 -1 70 3.5329721868038177e-04</internalNodes>
          <leafValues>
            3.0286160111427307e-01 -6.0583341121673584e-01</leafValues></_>
        <_>
          <internalNodes>
            0 -1 62 4.7244052402675152e-03</internalNodes>
          <leafValues>
            -3.2907858490943909e-01 7.9611486196517944e-01</leafValues></_>
        <_>
          <internalNodes>
            0 -1 6 -4.3028361687902361e-05</internalNodes>
          <leafValues>
            -7.2748720645904541e-01 2.9563987255096436e-01</leafValues></_>
        <_>
          <internalNodes>
            0 -1 38 2.9120850376784801e-04</internalNodes>
          <leafValues>
            -2.9824262857437134e-01 5.3855669498443604e-01</leafValues></_>
        <_>
          <internalNodes>
            0 -1 41 5.4832156747579575e-02</internalNodes>
          <leafValues>
            -2.7772200107574463e-01 5.6743776798248291e-01</leafValues></_></weakClassifiers></_>
    <!-- stage 5 -->
    <_>
      <maxWeakCount>9</maxWeakCount>
      <stageThreshold>-1.0358179807662964e+00</stageThreshold>
      <weakClassifiers>
        <_>
          <internalNodes>
            0 -1 25 -2.1283715963363647e-02</internalNodes>
          <leafValues>
            7.2434020042419434e-01 -3.7065052986145020e-01</leafValues></_>
        <_>
          <internalNodes>
            0 -1 21 4.2591960664140061e-05</internalNodes>
          <leafValues>
            -5.4953354597091675e-01 3.6545151472091675e-01</leafValues></_>
        <_>
          <internalNodes>
            0 -1 15 6.7240936914458871e-05</internalNodes>
          <leafValues>
            -5.1123183965682983e-01 3.5463368892669678e-01</leafValues></_>
        <_>
          <internalNodes>
            0 -1 60 4.7435190528631210e-02</internalNodes>
          <leafValues>
            -3.5119125247001648e-01 5.3001618385314941e-01</leafValues></_>
        <_>
          <internalNodes>
            0 -1 30 2.5297040119767189e-03</internalNodes>
          <leafValues>
            -3.2793357968330383e-01 5.3374022245407104e-01</leafValues></_>
        <_>
          <internalNodes>
            0 -1 57 -1.1312818387523293e-03</internalNodes>
          <leafValues>
            -7.7581375837326050e-01 2.6873257756233215e-01</leafValues></_>
        <_>
          <internalNodes>
            0 -1 16 1.9351255148649216e-02</internalNodes>
          <leafValues>
            1.4819759130477905e-01 -8.8027495145797729e-01</leafValues></_>
        <_>
          <internalNodes>
            0 -1 19 5.3704639867646620e-05</internalNodes>
          <leafValues>
            1.5705989301204681e-01 -6.5780013799667358e-01</leafValues></_>
        <_>
          <internalNodes>
            0 -1 47 9.2158131301403046e-03</internalNodes>
          <leafValues>
            -3.0274039506912231e-01 5.0073271989822388e-01</leafValues></_></weakClassifiers></_>
    <!-- stage 6 -->
    <_>
      <maxWeakCount>7</maxWeakCount>
      <stageThreshold>-1.1104918718338013e+00</stageThreshold>
      <weakClassifiers>
        <_>
          <internalNodes>
            0 -1 43 -2.7104327455163002e-03</internalNodes>
          <leafValues>
            6.9249689579010010e-01 -4.6935349702835083e-01</leafValues></_>
        <_>
          <internalNodes>
            0 -1 39 2.0258883014321327e-03</internalNodes>
          <leafValues>
            -3.7443768978118896e-01 6.8972343206405640e-01</leafValues></_>
        <_>
          <internalNodes>
            0 -1 44 -1.6720658168196678e-03</internalNodes>
          <leafValues>
            5.5458307266235352e-01 -3.7553974986076355e-01</leafValues></_>
        <_>
          <internalNodes>
            0 -1 0 9.1954629169777036e-05</internalNodes>
          <leafValues>
            2.4461193382740021e-01 -8.0731642246246338e-01</leafValues></_>
        <_>
          <internalNodes>
            0 -1 13 -1.3081669749226421e-04</internalNodes>
          <leafValues>
            -4.4750243425369263e-01 4.1496127843856812e-01</leafValues></_>
        <_>
          <internalNodes>
            0 -1 58 -2.8454676270484924e-02</internalNodes>
          <leafValues>
            6.3179707527160645e-01 -2.5576245784759521e-01</leafValues></_>
        <_>
          <internalNodes>
            0 -1 59 9.5381420105695724e-03</internalNodes>
          <leafValues>
            -1.7316618561744690e-01 9.4235217571258545e-01</leafValues></_></weakClassifiers></_>
    <!-- stage 7 -->
    <_>
      <maxWeakCount>9</maxWeakCount>
      <stageThreshold>-1.2539142370223999e+00</stageThreshold>
      <weakClassifiers>
        <_>
          <internalNodes>
            0 -1 49 -3.8776453584432602e-03</internalNodes>
          <leafValues>
            7.6627218723297119e-01 -3.8704818487167358e-01</leafValues></_>
        <_>
          <internalNodes>
            0 -1 20 1.4582336880266666e-03</internalNodes>
          <leafValues>
            -3.6678281426429749e-01 5.8739537000656128e-01</leafValues></_>
        <_>
          <internalNodes>
            0 -1 68 -1.7373979062540457e-05</internalNodes>
          <leafValues>
            4.1458103060722351e-01 -4.6162319183349609e-01</leafValues></_>
        <_>
          <internalNodes>
            0 -1 42 -1.0689133778214455e-03</internalNodes>
          <leafValues>
            3.9205574989318848e-01 -4.7655847668647766e-01</leafValues></_>
        <_>
          <internalNodes>
            0 -1 3 -7.6716387411579490e-04</internalNodes>
          <leafValues>
            -6.6786801815032959e-01 3.3144500851631165e-01</leafValues></_>
        <_>
          <internalNodes>
            0 -1 52 8.9486791694071144e-05</internalNodes>
          <leafValues>
            -4.2398810386657715e-01 3.8542395830154419e-01</leafValues></_>
        <_>
          <internalNodes>
            0 -1 45 -8.1122174859046936e-02</internalNodes>
          <leafValues>
            5.4781275987625122e-01 -3.1817358732223511e-01</leafValues></_>
        <_>
          <internalNodes>
            0 -1 54 3.5518365912139416e-03</internalNodes>
          <leafValues>
            -2.4466766417026520e-01 6.6236627101898193e-01</leafValues></_>
        <_>
          <internalNodes>
            0 -1 50 -2.4663363001309335e-04</internalNodes>
          <leafValues>
            -3.9903375506401062e-01 4.0717956423759460e-01</leafValues></_></weakClassifiers></_>
    <!-- stage 8 -->
    <_>
      <maxWeakCount>9</maxWeakCount>
      <stageThreshold>-8.6653196811676025e-01</stageThreshold>
      <weakClassifiers>
        <_>
          <internalNodes>
            0 -1 48 -6.0715419240295887e-03</internalNodes>
          <leafValues>
            7.6432079076766968e-01 -3.3237615227699280e-01</leafValues></_>
        <_>
          <internalNodes>
            0 -1 32 2.0961921662092209e-02</internalNodes>
          <leafValues>
            -1.8622782826423645e-01 7.0782023668289185e-01</leafValues></_>
        <_>
          <internalNodes>
            0 -1 69 -1.1213979450985789e-04</internalNodes>
          <leafValues>
            3.8742527365684509e-01 -3.7420910596847534e-01</leafValues></_>
        <_>
          <internalNodes>
            0 -1 34 -1.9770674407482147e-03</internalNodes>
          <leafValues>
            4.0375626087188721e-01 -4.7725445032119751e-01</leafValues></_>
        <_>
          <internalNodes>
            0 -1 9 5.5686640553176403e-04</internalNodes>
          <leafValues>
            2.5625285506248474e-01 -8.0655771493911743e-01</leafValues></_>
        <_>
          <internalNodes>
            0 -1 18 -1.1430910672061145e-04</internalNodes>
          <leafValues>
            -5.0406724214553833e-01 2.7510124444961548e-01</leafValues></_>
        <_>
          <internalNodes>
            0 -1 51 1.7502247355878353e-03</internalNodes>
          <leafValues>
            -3.3963078260421753e-01 4.8226064443588257e-01</leafValues></_>
        <_>
          <internalNodes>
            0 -1 64 -1.3532716548070312e-04</internalNodes>
          <leafValues>
            -8.3548527956008911e-01 2.5281271338462830e-01</leafValues></_>
        <_>
          <internalNodes>
            0 -1 23 -4.9927947111427784e-04</internalNodes>
          <leafValues>
            -5.2083498239517212e-01 2.7176186442375183e-01</leafValues></_></weakClassifiers></_>
    <!-- stage 9 -->
    <_>
      <maxWeakCount>8</maxWeakCount>
      <stageThreshold>-1.3172203302383423e+00</stageThreshold>
      <weakClassifiers>
        <_>
          <internalNodes>
            0 -1 67 -2.8057862073183060e-02</internalNodes>
          <leafValues>
            9.6347033977508545e-01 -2.6692208647727966e-01</leafValues></_>
        <_>
          <internalNodes>
            0 -1 61 3.9965320378541946e-02</internalNodes>
          <leafValues>
            -2.6001551747322083e-01 5.7978969812393188e-01</leafValues></_>
        <_>
          <internalNodes>
            0 -1 10 4.3532316340133548e-05</internalNodes>
          <leafValues>
            -3.1813895702362061e-01 4.6445718407630920e-01</leafValues></_>
        <_>
          <internalNodes>
            0 -1 5 -1.6460698843002319e-01</internalNodes>
          <leafValues>
            5.4501384496688843e-01 -3.3248957991600037e-01</leafValues></_>
        <_>
          <internalNodes>
            0 -1 27 -2.5012579560279846e-01</internalNodes>
          <leafValues>
            6.4115804433822632e-01 -2.0406070351600647e-01</leafValues></_>
        <_>
          <internalNodes>
            0 -1 66 9.4773983582854271e-03</internalNodes>
          <leafValues>
            -3.5186463594436646e-01 4.2114514112472534e-01</leafValues></_>
        <_>
          <internalNodes>
            0 -1 35 4.6525038778781891e-02</internalNodes>
          <leafValues>
            -2.5822839140892029e-01 6.8535262346267700e-01</leafValues></_>
        <_>
          <internalNodes>
            0 -1 29 -5.8072350919246674e-02</internalNodes>
          <leafValues>
            5.0339370965957642e-01 -2.6908141374588013e-01</leafValues></_></weakClassifiers></_></stages>
  <features>
    <_>
      <rects>
        <_>
          0 0 4 2 -1.</_>
        <_>
          0 0 2 1 2.</_>
        <_>
          2 1 2 1 2.</_></rects>
      <tilted>0</tilted></_>
    <_>
      <rects>
        <_>
          0 0 14 20 -1.</_>
        <_>
          7 0 7 20 2.</_></rects>
      <tilted>0</tilted></_>
    <_>
      <rects>
        <_>
          0 2 1 15 -1.</_>
        <_>
          0 7 1 5 3.</_></rects>
      <tilted>0</tilted></_>
    <_>
      <rects>
        <_>
          0 5 2 12 -1.</_>
        <_>
          0 9 2 4 3.</_></rects>
      <tilted>0</tilted></_>
    <_>
      <rects>
        <_>
          0 6 1 6 -1.</_>
        <_>
          0 8 1 2 3.</_></rects>
      <tilted>0</tilted></_>
    <_>
      <rects>
        <_>
          0 6 21 23 -1.</_>
        <_>
          7 6 7 23 3.</_></rects>
      <tilted>0</tilted></_>
    <_>
      <rects>
        <_>
          0 8 1 3 -1.</_>
        <_>
          0 9 1 1 3.</_></rects>
      <tilted>0</tilted></_>
    <_>
      <rects>
        <_>
          0 14 2 4 -1.</_>
        <_>
          1 14 1 4 2.</_></rects>
      <tilted>0</tilted></_>
    <_>
      <rects>
        <_>
          0 19 2 1 -1.</_>
        <_>
          1 19 1 1 2.</_></rects>
      <tilted>0</tilted></_>
    <_>
      <rects>
        <_>
          0 21 4 2 -1.</_>
        <_>
          2 21 2 2 2.</_></rects>
      <tilted>0</tilted></_>
    <_>
      <rects>
        <_>
          0 24 2 1 -1.</_>
        <_>
          1 24 1 1 2.</_></rects>
      <tilted>0</tilted></_>
    <_>
      <rects>
        <_>
          0 28 2 1 -1.</_>
        <_>
          1 28 1 1 2.</_></rects>
      <tilted>0</tilted></_>
    <_>
      <rects>
        <_>
          1 0 4 4 -1.</_>
        <_>
          3 0 2 4 2.</_></rects>
      <tilted>0</tilted></_>
    <_>
      <rects>
        <_>
          1 0 4 7 -1.</_>
        <_>
          3 0 2 7 2.</_></rects>
      <tilted>0</tilted></_>
    <_>
      <rects>
        <_>
          1 0 6 5 -1.</_>
        <_>
          4 0 3 5 2.</_></rects>
      <tilted>0</tilted></_>
    <_>
      <rects>
        <_>
          1 1 1 12 -1.</_>
        <_>
          1 5 1 4 3.</_></rects>
      <tilted>0</tilted></_>
    <_>
      <rects>
        <_>
          1 1 6 18 -1.</_>
        <_>
          1 7 6 6 3.</_></rects>
      <tilted>0</tilted></_>
    <_>
      <rects>
        <_>
          1 5 16 9 -1.</_>
        <_>
          9 5 8 9 2.</_></rects>
      <tilted>0</tilted></_>
    <_>
      <rects>
        <_>
          1 23 4 1 -1.</_>
        <_>
          3 23 2 1 2.</_></rects>
      <tilted>0</tilted></_>
    <_>
      <rects>
        <_>
          2 0 3 1 -1.</_>
        <_>
          3 0 1 1 3.</_></rects>
      <tilted>0</tilted></_>
    <_>
      <rects>
        <_>
          2 0 2 12 -1.</_>
        <_>
          2 6 2 6 2.</_></rects>
      <tilted>0</tilted></_>
    <_>
      <rects>
        <_>
          2 6 1 12 -1.</_>
        <_>
          2 10 1 4 3.</_></rects>
      <tilted>0</tilted></_>
    <_>
      <rects>
        <_>
          4 0 21 27 -1.</_>
        <_>
          11 0 7 27 3.</_></rects>
      <tilted>0</tilted></_>
    <_>
      <rects>
        <_>
          6 1 12 2 -1.</_>
        <_>
          10 1 4 2 3.</_></rects>
      <tilted>0</tilted></_>
    <_>
      <rects>
        <_>
          6 1 10 29 -1.</_>
        <_>
          11 1 5 29 2.</_></rects>
      <tilted>0</tilted></_>
    <_>
      <rects>
        <_>
          6 6 12 4 -1.</_>
        <_>
          10 6 4 4 3.</_></rects>
      <tilted>0</tilted></_>
    <_>
      <rects>
        <_>
          6 6 12 10 -1.</_>
        <_>
          10 6 4 10 3.</_></rects>
      <tilted>0</tilted></_>
    <_>
      <rects>
        <_>
          7 2 21 28 -1.</_>
        <_>
          14 2 7 28 3.</_></rects>
      <tilted>0</tilted></_>
    <_>
      <rects>
        <_>
          7 9 6 12 -1.</_>
        <_>
          10 9 3 12 2.</_></rects>
      <tilted>0</tilted></_>
    <_>
      <rects>
        <_>
          7 9 14 21 -1.</_>
        <_>
          7 16 14 7 3.</_></rects>
      <tilted>0</tilted></_>
    <_>
      <rects>
        <_>
          7 9 15 3 -1.</_>
        <_>
          7 10 15 1 3.</_></rects>
      <tilted>0</tilted></_>
    <_>
      <rects>
        <_>
          8 11 17 6 -1.</_>
        <_>
          8 14 17 3 2.</_></rects>
      <tilted>0</tilted></_>
    <_>
      <rects>
        <_>
          10 19 5 8 -1.</_>
        <_>
          10 23 5 4 2.</_></rects>
      <tilted>0</tilted></_>
    <_>
      <rects>
        <_>
          11 0 6 6 -1.</_>
        <_>
          11 3 6 3 2.</_></rects>
      <tilted>0</tilted></_>
    <_>
      <rects>
        <_>
          11 0 18 2 -1.</_>
        <_>
          11 1 18 1 2.</_></rects>
      <tilted>0</tilted></_>
    <_>
      <rects>
        <_>
          11 12 10 18 -1.</_>
        <_>
          11 18 10 6 3.</_></rects>
      <tilted>0</tilted></_>
    <_>
      <rects>
        <_>
          11 12 13 18 -1.</_>
        <_>
          11 18 13 6 3.</_></rects>
      <tilted>0</tilted></_>
    <_>
      <rects>
        <_>
          12 2 1 6 -1.</_>
        <_>
          12 5 1 3 2.</_></rects>
      <tilted>0</tilted></_>
    <_>
      <rects>
        <_>
          12 10 1 3 -1.</_>
        <_>
          12 11 1 1 3.</_></rects>
      <tilted>0</tilted></_>
    <_>
      <rects>
        <_>
          12 12 15 3 -1.</_>
        <_>
          12 13 15 1 3.</_></rects>
      <tilted>0</tilted></_>
    <_>
      <rects>
        <_>
          12 22 13 8 -1.</_>
        <_>
          12 26 13 4 2.</_></rects>
      <tilted>0</tilted></_>
    <_>
      <rects>
        <_>
          13 10 9 18 -1.</_>
        <_>
          13 16 9 6 3.</_></rects>
      <tilted>0</tilted></_>
    <_>
      <rects>
        <_>
          14 0 9 2 -1.</_>
        <_>
          14 1 9 1 2.</_></rects>
      <tilted>0</tilted></_>
    <_>
      <rects>
        <_>
          14 9 5 6 -1.</_>
        <_>
          14 12 5 3 2.</_></rects>
      <tilted>0</tilted></_>
    <_>
      <rects>
        <_>
          14 17 4 6 -1.</_>
        <_>
          14 20 4 3 2.</_></rects>
      <tilted>0</tilted></_>
    <_>
      <rects>
        <_>
          15 4 15 24 -1.</_>
        <_>
          20 4 5 24 3.</_></rects>
      <tilted>0</tilted></_>
    <_>
      <rects>
        <_>
          15 7 5 14 -1.</_>
        <_>
          15 14 5 7 2.</_></rects>
      <tilted>0</tilted></_>
    <_>
      <rects>
        <_>
          15 10 15 6 -1.</_>
        <_>
          15 12 15 2 3.</_></rects>
      <tilted>0</tilted></_>
    <_>
      <rects>
        <_>
          16 1 1 9 -1.</_>
        <_>
          16 4 1 3 3.</_></rects>
      <tilted>0</tilted></_>
    <_>
      <rects>
        <_>
          16 2 1 9 -1.</_>
        <_>
          16 5 1 3 3.</_></rects>
      <tilted>0</tilted></_>
    <_>
      <rects>
        <_>
          16 2 9 1 -1.</_>
        <_>
          19 2 3 1 3.</_></rects>
      <tilted>0</tilted></_>
    <_>
      <rects>
        <_>
          16 2 3 6 -1.</_>
        <_>
          16 4 3 2 3.</_></rects>
      <tilted>0</tilted></_>
    <_>
      <rects>
        <_>
          16 28 2 2 -1.</_>
        <_>
          16 29 2 1 2.</_></rects>
      <tilted>0</tilted></_>
    <_>
      <rects>
        <_>
          17 1 1 9 -1.</_>
        <_>
          17 4 1 3 3.</_></rects>
      <tilted>0</tilted></_>
    <_>
      <rects>
        <_>
          17 3 4 6 -1.</_>
        <_>
          17 5 4 2 3.</_></rects>
      <tilted>0</tilted></_>
    <_>
      <rects>
        <_>
          18 0 12 9 -1.</_>
        <_>
          24 0 6 9 2.</_></rects>
      <tilted>0</tilted></_>
    <_>
      <rects>
        <_>
          20 1 10 13 -1.</_>
        <_>
          25 1 5 13 2.</_></rects>
      <tilted>0</tilted></_>
    <_>
      <rects>
        <_>
          21 0 9 1 -1.</_>
        <_>
          24 0 3 1 3.</_></rects>
      <tilted>0</tilted></_>
    <_>
      <rects>
        <_>
          21 0 9 27 -1.</_>
        <_>
          24 0 3 27 3.</_></rects>
      <tilted>0</tilted></_>
    <_>
      <rects>
        <_>
          22 4 4 10 -1.</_>
        <_>
          22 4 2 5 2.</_>
        <_>
          24 9 2 5 2.</_></rects>
      <tilted>0</tilted></_>
    <_>
      <rects>
        <_>
          22 7 8 23 -1.</_>
        <_>
          26 7 4 23 2.</_></rects>
      <tilted>0</tilted></_>
    <_>
      <rects>
        <_>
          22 8 8 12 -1.</_>
        <_>
          26 8 4 12 2.</_></rects>
      <tilted>0</tilted></_>
    <_>
      <rects>
        <_>
          24 19 1 8 -1.</_>
        <_>
          24 23 1 4 2.</_></rects>
      <tilted>0</tilted></_>
    <_>
      <rects>
        <_>
          27 0 2 4 -1.</_>
        <_>
          28 0 1 4 2.</_></rects>
      <tilted>0</tilted></_>
    <_>
      <rects>
        <_>
          27 4 2 2 -1.</_>
        <_>
          28 4 1 2 2.</_></rects>
      <tilted>0</tilted></_>
    <_>
      <rects>
        <_>
          27 11 3 14 -1.</_>
        <_>
          27 18 3 7 2.</_></rects>
      <tilted>0</tilted></_>
    <_>
      <rects>
        <_>
          27 16 3 14 -1.</_>
        <_>
          27 23 3 7 2.</_></rects>
      <tilted>0</tilted></_>
    <_>
      <rects>
        <_>
          27 20 3 10 -1.</_>
        <_>
          27 25 3 5 2.</_></rects>
      <tilted>0</tilted></_>
    <_>
      <rects>
        <_>
          28 3 2 1 -1.</_>
        <_>
          29 3 1 1 2.</_></rects>
      <tilted>0</tilted></_>
    <_>
      <rects>
        <_>
          28 5 2 9 -1.</_>
        <_>
          29 5 1 9 2.</_></rects>
      <tilted>0</tilted></_>
    <_>
      <rects>
        <_>
          29 0 1 4 -1.</_>
        <_>
          29 2 1 2 2.</_></rects>
      <tilted>0</tilted></_></features></cascade>
</opencv_storage>
